digraph Tree {
node [shape=box] ;
0 [label="alcohol <= 11.675\ngini = 0.0591\nsamples = 6497\nvalue = [6299, 198]"] ;
1 [label="volatile acidity <= 0.2425\ngini = 0.0292\nsamples = 5271\nvalue = [5193, 78]"] ;
0 -> 1 [labeldistance=2.5, labelangle=45, headlabel="True"] ;
2 [label="alcohol <= 8.95\ngini = 0.0614\nsamples = 1766\nvalue = [1710, 56]"] ;
1 -> 2 ;
3 [label="chlorides <= 0.0555\ngini = 0.2255\nsamples = 139\nvalue = [121, 18]"] ;
2 -> 3 ;
4 [label="density <= 1.0005\ngini = 0.0618\nsamples = 94\nvalue = [91, 3]"] ;
3 -> 4 ;
5 [label="sulphates <= 0.755\ngini = 0.022\nsamples = 90\nvalue = [89, 1]"] ;
4 -> 5 ;
6 [label="gini = 0.0\nsamples = 85\nvalue = [85, 0]"] ;
5 -> 6 ;
7 [label="residual sugar <= 12.2\ngini = 0.32\nsamples = 5\nvalue = [4, 1]"] ;
5 -> 7 ;
8 [label="gini = 0.0\nsamples = 4\nvalue = [4, 0]"] ;
7 -> 8 ;
9 [label="gini = 0.0\nsamples = 1\nvalue = [0, 1]"] ;
7 -> 9 ;
10 [label="free sulfur dioxide <= 51.5\ngini = 0.5\nsamples = 4\nvalue = [2, 2]"] ;
4 -> 10 ;
11 [label="gini = 0.0\nsamples = 2\nvalue = [0, 2]"] ;
10 -> 11 ;
12 [label="gini = 0.0\nsamples = 2\nvalue = [2, 0]"] ;
10 -> 12 ;
13 [label="chlorides <= 0.0575\ngini = 0.4444\nsamples = 45\nvalue = [30, 15]"] ;
3 -> 13 ;
14 [label="alcohol <= 8.75\ngini = 0.4938\nsamples = 27\nvalue = [12, 15]"] ;
13 -> 14 ;
15 [label="gini = 0.0\nsamples = 11\nvalue = [11, 0]"] ;
14 -> 15 ;
16 [label="citric acid <= 0.355\ngini = 0.1172\nsamples = 16\nvalue = [1, 15]"] ;
14 -> 16 ;
17 [label="gini = 0.0\nsamples = 15\nvalue = [0, 15]"] ;
16 -> 17 ;
18 [label="gini = 0.0\nsamples = 1\nvalue = [1, 0]"] ;
16 -> 18 ;
19 [label="gini = 0.0\nsamples = 18\nvalue = [18, 0]"] ;
13 -> 19 ;
20 [label="alcohol <= 10.35\ngini = 0.0456\nsamples = 1627\nvalue = [1589, 38]"] ;
2 -> 20 ;
21 [label="volatile acidity <= 0.1225\ngini = 0.007\nsamples = 851\nvalue = [848, 3]"] ;
20 -> 21 ;
22 [label="pH <= 3.195\ngini = 0.1454\nsamples = 38\nvalue = [35, 3]"] ;
21 -> 22 ;
23 [label="pH <= 3.175\ngini = 0.4688\nsamples = 8\nvalue = [5, 3]"] ;
22 -> 23 ;
24 [label="gini = 0.0\nsamples = 5\nvalue = [5, 0]"] ;
23 -> 24 ;
25 [label="gini = 0.0\nsamples = 3\nvalue = [0, 3]"] ;
23 -> 25 ;
26 [label="gini = 0.0\nsamples = 30\nvalue = [30, 0]"] ;
22 -> 26 ;
27 [label="gini = 0.0\nsamples = 813\nvalue = [813, 0]"] ;
21 -> 27 ;
28 [label="free sulfur dioxide <= 79.5\ngini = 0.0861\nsamples = 776\nvalue = [741, 35]"] ;
20 -> 28 ;
29 [label="chlorides <= 0.1125\ngini = 0.0799\nsamples = 768\nvalue = [736, 32]"] ;
28 -> 29 ;
30 [label="fixed acidity <= 5.35\ngini = 0.0755\nsamples = 764\nvalue = [734, 30]"] ;
29 -> 30 ;
31 [label="volatile acidity <= 0.235\ngini = 0.42\nsamples = 10\nvalue = [7, 3]"] ;
30 -> 31 ;
32 [label="gini = 0.0\nsamples = 7\nvalue = [7, 0]"] ;
31 -> 32 ;
33 [label="gini = 0.0\nsamples = 3\nvalue = [0, 3]"] ;
31 -> 33 ;
34 [label="chlorides <= 0.0365\ngini = 0.0691\nsamples = 754\nvalue = [727, 27]"] ;
30 -> 34 ;
35 [label="volatile acidity <= 0.155\ngini = 0.1327\nsamples = 238\nvalue = [221, 17]"] ;
34 -> 35 ;
36 [label="alcohol <= 10.55\ngini = 0.3829\nsamples = 31\nvalue = [23, 8]"] ;
35 -> 36 ;
37 [label="gini = 0.0\nsamples = 3\nvalue = [0, 3]"] ;
36 -> 37 ;
38 [label="total sulfur dioxide <= 149.0\ngini = 0.2934\nsamples = 28\nvalue = [23, 5]"] ;
36 -> 38 ;
39 [label="residual sugar <= 11.4\ngini = 0.2041\nsamples = 26\nvalue = [23, 3]"] ;
38 -> 39 ;
40 [label="density <= 0.9906\ngini = 0.1472\nsamples = 25\nvalue = [23, 2]"] ;
39 -> 40 ;
41 [label="gini = 0.0\nsamples = 1\nvalue = [0, 1]"] ;
40 -> 41 ;
42 [label="chlorides <= 0.0355\ngini = 0.0799\nsamples = 24\nvalue = [23, 1]"] ;
40 -> 42 ;
43 [label="gini = 0.0\nsamples = 22\nvalue = [22, 0]"] ;
42 -> 43 ;
44 [label="citric acid <= 0.415\ngini = 0.5\nsamples = 2\nvalue = [1, 1]"] ;
42 -> 44 ;
45 [label="gini = 0.0\nsamples = 1\nvalue = [0, 1]"] ;
44 -> 45 ;
46 [label="gini = 0.0\nsamples = 1\nvalue = [1, 0]"] ;
44 -> 46 ;
47 [label="gini = 0.0\nsamples = 1\nvalue = [0, 1]"] ;
39 -> 47 ;
48 [label="gini = 0.0\nsamples = 2\nvalue = [0, 2]"] ;
38 -> 48 ;
49 [label="free sulfur dioxide <= 15.5\ngini = 0.0832\nsamples = 207\nvalue = [198, 9]"] ;
35 -> 49 ;
50 [label="residual sugar <= 6.45\ngini = 0.2604\nsamples = 26\nvalue = [22, 4]"] ;
49 -> 50 ;
51 [label="pH <= 3.33\ngini = 0.0907\nsamples = 21\nvalue = [20, 1]"] ;
50 -> 51 ;
52 [label="gini = 0.0\nsamples = 18\nvalue = [18, 0]"] ;
51 -> 52 ;
53 [label="density <= 0.9914\ngini = 0.4444\nsamples = 3\nvalue = [2, 1]"] ;
51 -> 53 ;
54 [label="gini = 0.0\nsamples = 1\nvalue = [0, 1]"] ;
53 -> 54 ;
55 [label="gini = 0.0\nsamples = 2\nvalue = [2, 0]"] ;
53 -> 55 ;
56 [label="volatile acidity <= 0.225\ngini = 0.48\nsamples = 5\nvalue = [2, 3]"] ;
50 -> 56 ;
57 [label="gini = 0.0\nsamples = 3\nvalue = [0, 3]"] ;
56 -> 57 ;
58 [label="gini = 0.0\nsamples = 2\nvalue = [2, 0]"] ;
56 -> 58 ;
59 [label="pH <= 3.245\ngini = 0.0537\nsamples = 181\nvalue = [176, 5]"] ;
49 -> 59 ;
60 [label="gini = 0.0\nsamples = 124\nvalue = [124, 0]"] ;
59 -> 60 ;
61 [label="sulphates <= 0.375\ngini = 0.16\nsamples = 57\nvalue = [52, 5]"] ;
59 -> 61 ;
62 [label="density <= 0.9919\ngini = 0.4444\nsamples = 3\nvalue = [1, 2]"] ;
61 -> 62 ;
63 [label="gini = 0.0\nsamples = 1\nvalue = [1, 0]"] ;
62 -> 63 ;
64 [label="gini = 0.0\nsamples = 2\nvalue = [0, 2]"] ;
62 -> 64 ;
65 [label="fixed acidity <= 7.25\ngini = 0.1049\nsamples = 54\nvalue = [51, 3]"] ;
61 -> 65 ;
66 [label="pH <= 3.26\ngini = 0.0408\nsamples = 48\nvalue = [47, 1]"] ;
65 -> 66 ;
67 [label="free sulfur dioxide <= 37.5\ngini = 0.32\nsamples = 5\nvalue = [4, 1]"] ;
66 -> 67 ;
68 [label="gini = 0.0\nsamples = 4\nvalue = [4, 0]"] ;
67 -> 68 ;
69 [label="gini = 0.0\nsamples = 1\nvalue = [0, 1]"] ;
67 -> 69 ;
70 [label="gini = 0.0\nsamples = 43\nvalue = [43, 0]"] ;
66 -> 70 ;
71 [label="pH <= 3.335\ngini = 0.4444\nsamples = 6\nvalue = [4, 2]"] ;
65 -> 71 ;
72 [label="gini = 0.0\nsamples = 2\nvalue = [0, 2]"] ;
71 -> 72 ;
73 [label="gini = 0.0\nsamples = 4\nvalue = [4, 0]"] ;
71 -> 73 ;
74 [label="alcohol <= 11.475\ngini = 0.038\nsamples = 516\nvalue = [506, 10]"] ;
34 -> 74 ;
75 [label="volatile acidity <= 0.225\ngini = 0.0283\nsamples = 487\nvalue = [480, 7]"] ;
74 -> 75 ;
76 [label="pH <= 3.135\ngini = 0.0103\nsamples = 387\nvalue = [385, 2]"] ;
75 -> 76 ;
77 [label="alcohol <= 10.45\ngini = 0.0305\nsamples = 129\nvalue = [127, 2]"] ;
76 -> 77 ;
78 [label="total sulfur dioxide <= 107.0\ngini = 0.1975\nsamples = 9\nvalue = [8, 1]"] ;
77 -> 78 ;
79 [label="gini = 0.0\nsamples = 1\nvalue = [0, 1]"] ;
78 -> 79 ;
80 [label="gini = 0.0\nsamples = 8\nvalue = [8, 0]"] ;
78 -> 80 ;
81 [label="chlorides <= 0.0545\ngini = 0.0165\nsamples = 120\nvalue = [119, 1]"] ;
77 -> 81 ;
82 [label="gini = 0.0\nsamples = 104\nvalue = [104, 0]"] ;
81 -> 82 ;
83 [label="chlorides <= 0.056\ngini = 0.1172\nsamples = 16\nvalue = [15, 1]"] ;
81 -> 83 ;
84 [label="citric acid <= 0.375\ngini = 0.375\nsamples = 4\nvalue = [3, 1]"] ;
83 -> 84 ;
85 [label="gini = 0.0\nsamples = 1\nvalue = [0, 1]"] ;
84 -> 85 ;
86 [label="gini = 0.0\nsamples = 3\nvalue = [3, 0]"] ;
84 -> 86 ;
87 [label="gini = 0.0\nsamples = 12\nvalue = [12, 0]"] ;
83 -> 87 ;
88 [label="gini = 0.0\nsamples = 258\nvalue = [258, 0]"] ;
76 -> 88 ;
89 [label="pH <= 3.32\ngini = 0.095\nsamples = 100\nvalue = [95, 5]"] ;
75 -> 89 ;
90 [label="chlorides <= 0.0375\ngini = 0.047\nsamples = 83\nvalue = [81, 2]"] ;
89 -> 90 ;
91 [label="total sulfur dioxide <= 119.0\ngini = 0.375\nsamples = 4\nvalue = [3, 1]"] ;
90 -> 91 ;
92 [label="gini = 0.0\nsamples = 3\nvalue = [3, 0]"] ;
91 -> 92 ;
93 [label="gini = 0.0\nsamples = 1\nvalue = [0, 1]"] ;
91 -> 93 ;
94 [label="alcohol <= 10.45\ngini = 0.025\nsamples = 79\nvalue = [78, 1]"] ;
90 -> 94 ;
95 [label="density <= 0.9926\ngini = 0.1528\nsamples = 12\nvalue = [11, 1]"] ;
94 -> 95 ;
96 [label="free sulfur dioxide <= 18.5\ngini = 0.4444\nsamples = 3\nvalue = [2, 1]"] ;
95 -> 96 ;
97 [label="gini = 0.0\nsamples = 1\nvalue = [0, 1]"] ;
96 -> 97 ;
98 [label="gini = 0.0\nsamples = 2\nvalue = [2, 0]"] ;
96 -> 98 ;
99 [label="gini = 0.0\nsamples = 9\nvalue = [9, 0]"] ;
95 -> 99 ;
100 [label="gini = 0.0\nsamples = 67\nvalue = [67, 0]"] ;
94 -> 100 ;
101 [label="citric acid <= 0.32\ngini = 0.2907\nsamples = 17\nvalue = [14, 3]"] ;
89 -> 101 ;
102 [label="fixed acidity <= 6.15\ngini = 0.5\nsamples = 6\nvalue = [3, 3]"] ;
101 -> 102 ;
103 [label="gini = 0.0\nsamples = 3\nvalue = [3, 0]"] ;
102 -> 103 ;
104 [label="gini = 0.0\nsamples = 3\nvalue = [0, 3]"] ;
102 -> 104 ;
105 [label="gini = 0.0\nsamples = 11\nvalue = [11, 0]"] ;
101 -> 105 ;
106 [label="sulphates <= 0.57\ngini = 0.1855\nsamples = 29\nvalue = [26, 3]"] ;
74 -> 106 ;
107 [label="gini = 0.0\nsamples = 21\nvalue = [21, 0]"] ;
106 -> 107 ;
108 [label="free sulfur dioxide <= 38.5\ngini = 0.4688\nsamples = 8\nvalue = [5, 3]"] ;
106 -> 108 ;
109 [label="gini = 0.0\nsamples = 5\nvalue = [5, 0]"] ;
108 -> 109 ;
110 [label="gini = 0.0\nsamples = 3\nvalue = [0, 3]"] ;
108 -> 110 ;
111 [label="alcohol <= 10.45\ngini = 0.5\nsamples = 4\nvalue = [2, 2]"] ;
29 -> 111 ;
112 [label="gini = 0.0\nsamples = 2\nvalue = [0, 2]"] ;
111 -> 112 ;
113 [label="gini = 0.0\nsamples = 2\nvalue = [2, 0]"] ;
111 -> 113 ;
114 [label="alcohol <= 11.25\ngini = 0.4688\nsamples = 8\nvalue = [5, 3]"] ;
28 -> 114 ;
115 [label="gini = 0.0\nsamples = 5\nvalue = [5, 0]"] ;
114 -> 115 ;
116 [label="gini = 0.0\nsamples = 3\nvalue = [0, 3]"] ;
114 -> 116 ;
117 [label="alcohol <= 10.35\ngini = 0.0125\nsamples = 3505\nvalue = [3483, 22]"] ;
1 -> 117 ;
118 [label="pH <= 2.885\ngini = 0.0026\nsamples = 2305\nvalue = [2302, 3]"] ;
117 -> 118 ;
119 [label="pH <= 2.875\ngini = 0.1244\nsamples = 15\nvalue = [14, 1]"] ;
118 -> 119 ;
120 [label="gini = 0.0\nsamples = 13\nvalue = [13, 0]"] ;
119 -> 120 ;
121 [label="sulphates <= 0.645\ngini = 0.5\nsamples = 2\nvalue = [1, 1]"] ;
119 -> 121 ;
122 [label="gini = 0.0\nsamples = 1\nvalue = [1, 0]"] ;
121 -> 122 ;
123 [label="gini = 0.0\nsamples = 1\nvalue = [0, 1]"] ;
121 -> 123 ;
124 [label="free sulfur dioxide <= 3.5\ngini = 0.0017\nsamples = 2290\nvalue = [2288, 2]"] ;
118 -> 124 ;
125 [label="sulphates <= 1.01\ngini = 0.1172\nsamples = 16\nvalue = [15, 1]"] ;
124 -> 125 ;
126 [label="gini = 0.0\nsamples = 15\nvalue = [15, 0]"] ;
125 -> 126 ;
127 [label="gini = 0.0\nsamples = 1\nvalue = [0, 1]"] ;
125 -> 127 ;
128 [label="residual sugar <= 1.15\ngini = 0.0009\nsamples = 2274\nvalue = [2273, 1]"] ;
124 -> 128 ;
129 [label="free sulfur dioxide <= 43.5\ngini = 0.0312\nsamples = 63\nvalue = [62, 1]"] ;
128 -> 129 ;
130 [label="gini = 0.0\nsamples = 56\nvalue = [56, 0]"] ;
129 -> 130 ;
131 [label="free sulfur dioxide <= 45.5\ngini = 0.2449\nsamples = 7\nvalue = [6, 1]"] ;
129 -> 131 ;
132 [label="gini = 0.0\nsamples = 1\nvalue = [0, 1]"] ;
131 -> 132 ;
133 [label="gini = 0.0\nsamples = 6\nvalue = [6, 0]"] ;
131 -> 133 ;
134 [label="gini = 0.0\nsamples = 2211\nvalue = [2211, 0]"] ;
128 -> 134 ;
135 [label="volatile acidity <= 0.4025\ngini = 0.0312\nsamples = 1200\nvalue = [1181, 19]"] ;
117 -> 135 ;
136 [label="density <= 0.9925\ngini = 0.0478\nsamples = 776\nvalue = [757, 19]"] ;
135 -> 136 ;
137 [label="gini = 0.0\nsamples = 284\nvalue = [284, 0]"] ;
136 -> 137 ;
138 [label="density <= 0.9926\ngini = 0.0743\nsamples = 492\nvalue = [473, 19]"] ;
136 -> 138 ;
139 [label="chlorides <= 0.044\ngini = 0.4688\nsamples = 8\nvalue = [5, 3]"] ;
138 -> 139 ;
140 [label="fixed acidity <= 8.45\ngini = 0.375\nsamples = 4\nvalue = [1, 3]"] ;
139 -> 140 ;
141 [label="gini = 0.0\nsamples = 3\nvalue = [0, 3]"] ;
140 -> 141 ;
142 [label="gini = 0.0\nsamples = 1\nvalue = [1, 0]"] ;
140 -> 142 ;
143 [label="gini = 0.0\nsamples = 4\nvalue = [4, 0]"] ;
139 -> 143 ;
144 [label="sulphates <= 0.375\ngini = 0.0639\nsamples = 484\nvalue = [468, 16]"] ;
138 -> 144 ;
145 [label="alcohol <= 11.05\ngini = 0.1827\nsamples = 59\nvalue = [53, 6]"] ;
144 -> 145 ;
146 [label="gini = 0.0\nsamples = 32\nvalue = [32, 0]"] ;
145 -> 146 ;
147 [label="pH <= 3.235\ngini = 0.3457\nsamples = 27\nvalue = [21, 6]"] ;
145 -> 147 ;
148 [label="chlorides <= 0.0445\ngini = 0.2268\nsamples = 23\nvalue = [20, 3]"] ;
147 -> 148 ;
149 [label="alcohol <= 11.15\ngini = 0.095\nsamples = 20\nvalue = [19, 1]"] ;
148 -> 149 ;
150 [label="density <= 0.9932\ngini = 0.5\nsamples = 2\nvalue = [1, 1]"] ;
149 -> 150 ;
151 [label="gini = 0.0\nsamples = 1\nvalue = [0, 1]"] ;
150 -> 151 ;
152 [label="gini = 0.0\nsamples = 1\nvalue = [1, 0]"] ;
150 -> 152 ;
153 [label="gini = 0.0\nsamples = 18\nvalue = [18, 0]"] ;
149 -> 153 ;
154 [label="pH <= 3.04\ngini = 0.4444\nsamples = 3\nvalue = [1, 2]"] ;
148 -> 154 ;
155 [label="gini = 0.0\nsamples = 1\nvalue = [1, 0]"] ;
154 -> 155 ;
156 [label="gini = 0.0\nsamples = 2\nvalue = [0, 2]"] ;
154 -> 156 ;
157 [label="sulphates <= 0.31\ngini = 0.375\nsamples = 4\nvalue = [1, 3]"] ;
147 -> 157 ;
158 [label="gini = 0.0\nsamples = 1\nvalue = [1, 0]"] ;
157 -> 158 ;
159 [label="gini = 0.0\nsamples = 3\nvalue = [0, 3]"] ;
157 -> 159 ;
160 [label="total sulfur dioxide <= 128.5\ngini = 0.046\nsamples = 425\nvalue = [415, 10]"] ;
144 -> 160 ;
161 [label="total sulfur dioxide <= 114.5\ngini = 0.0689\nsamples = 252\nvalue = [243, 9]"] ;
160 -> 161 ;
162 [label="total sulfur dioxide <= 29.5\ngini = 0.0375\nsamples = 209\nvalue = [205, 4]"] ;
161 -> 162 ;
163 [label="citric acid <= 0.315\ngini = 0.1023\nsamples = 74\nvalue = [70, 4]"] ;
162 -> 163 ;
164 [label="sulphates <= 0.695\ngini = 0.4444\nsamples = 6\nvalue = [4, 2]"] ;
163 -> 164 ;
165 [label="gini = 0.0\nsamples = 4\nvalue = [4, 0]"] ;
164 -> 165 ;
166 [label="gini = 0.0\nsamples = 2\nvalue = [0, 2]"] ;
164 -> 166 ;
167 [label="fixed acidity <= 10.65\ngini = 0.0571\nsamples = 68\nvalue = [66, 2]"] ;
163 -> 167 ;
168 [label="gini = 0.0\nsamples = 55\nvalue = [55, 0]"] ;
167 -> 168 ;
169 [label="fixed acidity <= 10.85\ngini = 0.2604\nsamples = 13\nvalue = [11, 2]"] ;
167 -> 169 ;
170 [label="free sulfur dioxide <= 11.0\ngini = 0.4444\nsamples = 3\nvalue = [1, 2]"] ;
169 -> 170 ;
171 [label="gini = 0.0\nsamples = 2\nvalue = [0, 2]"] ;
170 -> 171 ;
172 [label="gini = 0.0\nsamples = 1\nvalue = [1, 0]"] ;
170 -> 172 ;
173 [label="gini = 0.0\nsamples = 10\nvalue = [10, 0]"] ;
169 -> 173 ;
174 [label="gini = 0.0\nsamples = 135\nvalue = [135, 0]"] ;
162 -> 174 ;
175 [label="pH <= 3.275\ngini = 0.2055\nsamples = 43\nvalue = [38, 5]"] ;
161 -> 175 ;
176 [label="density <= 0.9969\ngini = 0.0588\nsamples = 33\nvalue = [32, 1]"] ;
175 -> 176 ;
177 [label="gini = 0.0\nsamples = 32\nvalue = [32, 0]"] ;
176 -> 177 ;
178 [label="gini = 0.0\nsamples = 1\nvalue = [0, 1]"] ;
176 -> 178 ;
179 [label="density <= 0.9929\ngini = 0.48\nsamples = 10\nvalue = [6, 4]"] ;
175 -> 179 ;
180 [label="gini = 0.0\nsamples = 4\nvalue = [4, 0]"] ;
179 -> 180 ;
181 [label="free sulfur dioxide <= 30.0\ngini = 0.4444\nsamples = 6\nvalue = [2, 4]"] ;
179 -> 181 ;
182 [label="total sulfur dioxide <= 126.0\ngini = 0.4444\nsamples = 3\nvalue = [2, 1]"] ;
181 -> 182 ;
183 [label="gini = 0.0\nsamples = 2\nvalue = [2, 0]"] ;
182 -> 183 ;
184 [label="gini = 0.0\nsamples = 1\nvalue = [0, 1]"] ;
182 -> 184 ;
185 [label="gini = 0.0\nsamples = 3\nvalue = [0, 3]"] ;
181 -> 185 ;
186 [label="pH <= 3.445\ngini = 0.0115\nsamples = 173\nvalue = [172, 1]"] ;
160 -> 186 ;
187 [label="gini = 0.0\nsamples = 155\nvalue = [155, 0]"] ;
186 -> 187 ;
188 [label="fixed acidity <= 7.7\ngini = 0.1049\nsamples = 18\nvalue = [17, 1]"] ;
186 -> 188 ;
189 [label="gini = 0.0\nsamples = 17\nvalue = [17, 0]"] ;
188 -> 189 ;
190 [label="gini = 0.0\nsamples = 1\nvalue = [0, 1]"] ;
188 -> 190 ;
191 [label="gini = 0.0\nsamples = 424\nvalue = [424, 0]"] ;
135 -> 191 ;
192 [label="free sulfur dioxide <= 53.5\ngini = 0.1766\nsamples = 1226\nvalue = [1106, 120]"] ;
0 -> 192 [labeldistance=2.5, labelangle=-45, headlabel="False"] ;
193 [label="sulphates <= 0.335\ngini = 0.163\nsamples = 1184\nvalue = [1078, 106]"] ;
192 -> 193 ;
194 [label="volatile acidity <= 0.35\ngini = 0.3386\nsamples = 88\nvalue = [69, 19]"] ;
193 -> 194 ;
195 [label="volatile acidity <= 0.1225\ngini = 0.18\nsamples = 60\nvalue = [54, 6]"] ;
194 -> 195 ;
196 [label="gini = 0.0\nsamples = 2\nvalue = [0, 2]"] ;
195 -> 196 ;
197 [label="pH <= 3.0\ngini = 0.1284\nsamples = 58\nvalue = [54, 4]"] ;
195 -> 197 ;
198 [label="fixed acidity <= 6.85\ngini = 0.4444\nsamples = 6\nvalue = [4, 2]"] ;
197 -> 198 ;
199 [label="gini = 0.0\nsamples = 2\nvalue = [0, 2]"] ;
198 -> 199 ;
200 [label="gini = 0.0\nsamples = 4\nvalue = [4, 0]"] ;
198 -> 200 ;
201 [label="pH <= 3.34\ngini = 0.074\nsamples = 52\nvalue = [50, 2]"] ;
197 -> 201 ;
202 [label="chlorides <= 0.026\ngini = 0.0392\nsamples = 50\nvalue = [49, 1]"] ;
201 -> 202 ;
203 [label="fixed acidity <= 6.95\ngini = 0.18\nsamples = 10\nvalue = [9, 1]"] ;
202 -> 203 ;
204 [label="gini = 0.0\nsamples = 9\nvalue = [9, 0]"] ;
203 -> 204 ;
205 [label="gini = 0.0\nsamples = 1\nvalue = [0, 1]"] ;
203 -> 205 ;
206 [label="gini = 0.0\nsamples = 40\nvalue = [40, 0]"] ;
202 -> 206 ;
207 [label="free sulfur dioxide <= 28.0\ngini = 0.5\nsamples = 2\nvalue = [1, 1]"] ;
201 -> 207 ;
208 [label="gini = 0.0\nsamples = 1\nvalue = [0, 1]"] ;
207 -> 208 ;
209 [label="gini = 0.0\nsamples = 1\nvalue = [1, 0]"] ;
207 -> 209 ;
210 [label="density <= 0.9895\ngini = 0.4974\nsamples = 28\nvalue = [15, 13]"] ;
194 -> 210 ;
211 [label="gini = 0.0\nsamples = 5\nvalue = [0, 5]"] ;
210 -> 211 ;
212 [label="citric acid <= 0.315\ngini = 0.4537\nsamples = 23\nvalue = [15, 8]"] ;
210 -> 212 ;
213 [label="gini = 0.0\nsamples = 10\nvalue = [10, 0]"] ;
212 -> 213 ;
214 [label="fixed acidity <= 6.4\ngini = 0.4734\nsamples = 13\nvalue = [5, 8]"] ;
212 -> 214 ;
215 [label="gini = 0.0\nsamples = 3\nvalue = [3, 0]"] ;
214 -> 215 ;
216 [label="total sulfur dioxide <= 151.5\ngini = 0.32\nsamples = 10\nvalue = [2, 8]"] ;
214 -> 216 ;
217 [label="gini = 0.0\nsamples = 8\nvalue = [0, 8]"] ;
216 -> 217 ;
218 [label="gini = 0.0\nsamples = 2\nvalue = [2, 0]"] ;
216 -> 218 ;
219 [label="free sulfur dioxide <= 25.5\ngini = 0.1462\nsamples = 1096\nvalue = [1009, 87]"] ;
193 -> 219 ;
220 [label="residual sugar <= 12.775\ngini = 0.086\nsamples = 533\nvalue = [509, 24]"] ;
219 -> 220 ;
221 [label="sulphates <= 0.815\ngini = 0.0767\nsamples = 526\nvalue = [505, 21]"] ;
220 -> 221 ;
222 [label="alcohol <= 13.05\ngini = 0.0567\nsamples = 479\nvalue = [465, 14]"] ;
221 -> 222 ;
223 [label="density <= 0.9902\ngini = 0.0405\nsamples = 435\nvalue = [426, 9]"] ;
222 -> 223 ;
224 [label="total sulfur dioxide <= 136.0\ngini = 0.1097\nsamples = 103\nvalue = [97, 6]"] ;
223 -> 224 ;
225 [label="pH <= 3.33\ngini = 0.0932\nsamples = 102\nvalue = [97, 5]"] ;
224 -> 225 ;
226 [label="total sulfur dioxide <= 111.5\ngini = 0.025\nsamples = 79\nvalue = [78, 1]"] ;
225 -> 226 ;
227 [label="gini = 0.0\nsamples = 66\nvalue = [66, 0]"] ;
226 -> 227 ;
228 [label="total sulfur dioxide <= 112.5\ngini = 0.142\nsamples = 13\nvalue = [12, 1]"] ;
226 -> 228 ;
229 [label="gini = 0.0\nsamples = 1\nvalue = [0, 1]"] ;
228 -> 229 ;
230 [label="gini = 0.0\nsamples = 12\nvalue = [12, 0]"] ;
228 -> 230 ;
231 [label="fixed acidity <= 6.25\ngini = 0.2873\nsamples = 23\nvalue = [19, 4]"] ;
225 -> 231 ;
232 [label="total sulfur dioxide <= 71.0\ngini = 0.1723\nsamples = 21\nvalue = [19, 2]"] ;
231 -> 232 ;
233 [label="gini = 0.0\nsamples = 1\nvalue = [0, 1]"] ;
232 -> 233 ;
234 [label="alcohol <= 12.9\ngini = 0.095\nsamples = 20\nvalue = [19, 1]"] ;
232 -> 234 ;
235 [label="gini = 0.0\nsamples = 19\nvalue = [19, 0]"] ;
234 -> 235 ;
236 [label="gini = 0.0\nsamples = 1\nvalue = [0, 1]"] ;
234 -> 236 ;
237 [label="gini = 0.0\nsamples = 2\nvalue = [0, 2]"] ;
231 -> 237 ;
238 [label="gini = 0.0\nsamples = 1\nvalue = [0, 1]"] ;
224 -> 238 ;
239 [label="free sulfur dioxide <= 7.5\ngini = 0.0179\nsamples = 332\nvalue = [329, 3]"] ;
223 -> 239 ;
240 [label="residual sugar <= 1.85\ngini = 0.0768\nsamples = 75\nvalue = [72, 3]"] ;
239 -> 240 ;
241 [label="chlorides <= 0.0675\ngini = 0.2449\nsamples = 14\nvalue = [12, 2]"] ;
240 -> 241 ;
242 [label="gini = 0.0\nsamples = 11\nvalue = [11, 0]"] ;
241 -> 242 ;
243 [label="sulphates <= 0.565\ngini = 0.4444\nsamples = 3\nvalue = [1, 2]"] ;
241 -> 243 ;
244 [label="gini = 0.0\nsamples = 1\nvalue = [1, 0]"] ;
243 -> 244 ;
245 [label="gini = 0.0\nsamples = 2\nvalue = [0, 2]"] ;
243 -> 245 ;
246 [label="residual sugar <= 6.0\ngini = 0.0322\nsamples = 61\nvalue = [60, 1]"] ;
240 -> 246 ;
247 [label="gini = 0.0\nsamples = 55\nvalue = [55, 0]"] ;
246 -> 247 ;
248 [label="alcohol <= 12.35\ngini = 0.2778\nsamples = 6\nvalue = [5, 1]"] ;
246 -> 248 ;
249 [label="gini = 0.0\nsamples = 5\nvalue = [5, 0]"] ;
248 -> 249 ;
250 [label="gini = 0.0\nsamples = 1\nvalue = [0, 1]"] ;
248 -> 250 ;
251 [label="gini = 0.0\nsamples = 257\nvalue = [257, 0]"] ;
239 -> 251 ;
252 [label="density <= 0.9979\ngini = 0.2014\nsamples = 44\nvalue = [39, 5]"] ;
222 -> 252 ;
253 [label="pH <= 3.015\ngini = 0.1687\nsamples = 43\nvalue = [39, 4]"] ;
252 -> 253 ;
254 [label="free sulfur dioxide <= 18.0\ngini = 0.5\nsamples = 4\nvalue = [2, 2]"] ;
253 -> 254 ;
255 [label="gini = 0.0\nsamples = 2\nvalue = [2, 0]"] ;
254 -> 255 ;
256 [label="gini = 0.0\nsamples = 2\nvalue = [0, 2]"] ;
254 -> 256 ;
257 [label="pH <= 3.715\ngini = 0.0973\nsamples = 39\nvalue = [37, 2]"] ;
253 -> 257 ;
258 [label="chlorides <= 0.0725\ngini = 0.0526\nsamples = 37\nvalue = [36, 1]"] ;
257 -> 258 ;
259 [label="gini = 0.0\nsamples = 34\nvalue = [34, 0]"] ;
258 -> 259 ;
260 [label="alcohol <= 13.15\ngini = 0.4444\nsamples = 3\nvalue = [2, 1]"] ;
258 -> 260 ;
261 [label="gini = 0.0\nsamples = 1\nvalue = [0, 1]"] ;
260 -> 261 ;
262 [label="gini = 0.0\nsamples = 2\nvalue = [2, 0]"] ;
260 -> 262 ;
263 [label="free sulfur dioxide <= 13.5\ngini = 0.5\nsamples = 2\nvalue = [1, 1]"] ;
257 -> 263 ;
264 [label="gini = 0.0\nsamples = 1\nvalue = [1, 0]"] ;
263 -> 264 ;
265 [label="gini = 0.0\nsamples = 1\nvalue = [0, 1]"] ;
263 -> 265 ;
266 [label="gini = 0.0\nsamples = 1\nvalue = [0, 1]"] ;
252 -> 266 ;
267 [label="volatile acidity <= 0.2125\ngini = 0.2535\nsamples = 47\nvalue = [40, 7]"] ;
221 -> 267 ;
268 [label="sulphates <= 0.87\ngini = 0.48\nsamples = 5\nvalue = [2, 3]"] ;
267 -> 268 ;
269 [label="gini = 0.0\nsamples = 3\nvalue = [0, 3]"] ;
268 -> 269 ;
270 [label="gini = 0.0\nsamples = 2\nvalue = [2, 0]"] ;
268 -> 270 ;
271 [label="volatile acidity <= 0.8425\ngini = 0.1723\nsamples = 42\nvalue = [38, 4]"] ;
267 -> 271 ;
272 [label="total sulfur dioxide <= 17.5\ngini = 0.1356\nsamples = 41\nvalue = [38, 3]"] ;
271 -> 272 ;
273 [label="volatile acidity <= 0.38\ngini = 0.48\nsamples = 5\nvalue = [3, 2]"] ;
272 -> 273 ;
274 [label="gini = 0.0\nsamples = 2\nvalue = [0, 2]"] ;
273 -> 274 ;
275 [label="gini = 0.0\nsamples = 3\nvalue = [3, 0]"] ;
273 -> 275 ;
276 [label="density <= 0.9968\ngini = 0.054\nsamples = 36\nvalue = [35, 1]"] ;
272 -> 276 ;
277 [label="gini = 0.0\nsamples = 28\nvalue = [28, 0]"] ;
276 -> 277 ;
278 [label="volatile acidity <= 0.355\ngini = 0.2188\nsamples = 8\nvalue = [7, 1]"] ;
276 -> 278 ;
279 [label="gini = 0.0\nsamples = 1\nvalue = [0, 1]"] ;
278 -> 279 ;
280 [label="gini = 0.0\nsamples = 7\nvalue = [7, 0]"] ;
278 -> 280 ;
281 [label="gini = 0.0\nsamples = 1\nvalue = [0, 1]"] ;
271 -> 281 ;
282 [label="free sulfur dioxide <= 19.0\ngini = 0.4898\nsamples = 7\nvalue = [4, 3]"] ;
220 -> 282 ;
283 [label="gini = 0.0\nsamples = 4\nvalue = [4, 0]"] ;
282 -> 283 ;
284 [label="gini = 0.0\nsamples = 3\nvalue = [0, 3]"] ;
282 -> 284 ;
285 [label="fixed acidity <= 5.55\ngini = 0.1988\nsamples = 563\nvalue = [500, 63]"] ;
219 -> 285 ;
286 [label="volatile acidity <= 0.4575\ngini = 0.4178\nsamples = 37\nvalue = [26, 11]"] ;
285 -> 286 ;
287 [label="chlorides <= 0.0215\ngini = 0.2854\nsamples = 29\nvalue = [24, 5]"] ;
286 -> 287 ;
288 [label="gini = 0.0\nsamples = 2\nvalue = [0, 2]"] ;
287 -> 288 ;
289 [label="fixed acidity <= 4.55\ngini = 0.1975\nsamples = 27\nvalue = [24, 3]"] ;
287 -> 289 ;
290 [label="gini = 0.0\nsamples = 2\nvalue = [0, 2]"] ;
289 -> 290 ;
291 [label="citric acid <= 0.17\ngini = 0.0768\nsamples = 25\nvalue = [24, 1]"] ;
289 -> 291 ;
292 [label="citric acid <= 0.085\ngini = 0.375\nsamples = 4\nvalue = [3, 1]"] ;
291 -> 292 ;
293 [label="gini = 0.0\nsamples = 3\nvalue = [3, 0]"] ;
292 -> 293 ;
294 [label="gini = 0.0\nsamples = 1\nvalue = [0, 1]"] ;
292 -> 294 ;
295 [label="gini = 0.0\nsamples = 21\nvalue = [21, 0]"] ;
291 -> 295 ;
296 [label="sulphates <= 0.455\ngini = 0.375\nsamples = 8\nvalue = [2, 6]"] ;
286 -> 296 ;
297 [label="gini = 0.0\nsamples = 2\nvalue = [2, 0]"] ;
296 -> 297 ;
298 [label="gini = 0.0\nsamples = 6\nvalue = [0, 6]"] ;
296 -> 298 ;
299 [label="density <= 0.9902\ngini = 0.1782\nsamples = 526\nvalue = [474, 52]"] ;
285 -> 299 ;
300 [label="total sulfur dioxide <= 77.0\ngini = 0.0932\nsamples = 204\nvalue = [194, 10]"] ;
299 -> 300 ;
301 [label="total sulfur dioxide <= 73.5\ngini = 0.48\nsamples = 5\nvalue = [2, 3]"] ;
300 -> 301 ;
302 [label="gini = 0.0\nsamples = 2\nvalue = [2, 0]"] ;
301 -> 302 ;
303 [label="gini = 0.0\nsamples = 3\nvalue = [0, 3]"] ;
301 -> 303 ;
304 [label="sulphates <= 0.845\ngini = 0.0679\nsamples = 199\nvalue = [192, 7]"] ;
300 -> 304 ;
305 [label="residual sugar <= 0.85\ngini = 0.0591\nsamples = 197\nvalue = [191, 6]"] ;
304 -> 305 ;
306 [label="alcohol <= 12.25\ngini = 0.4444\nsamples = 3\nvalue = [2, 1]"] ;
305 -> 306 ;
307 [label="gini = 0.0\nsamples = 1\nvalue = [0, 1]"] ;
306 -> 307 ;
308 [label="gini = 0.0\nsamples = 2\nvalue = [2, 0]"] ;
306 -> 308 ;
309 [label="alcohol <= 12.95\ngini = 0.0502\nsamples = 194\nvalue = [189, 5]"] ;
305 -> 309 ;
310 [label="chlorides <= 0.046\ngini = 0.0132\nsamples = 151\nvalue = [150, 1]"] ;
309 -> 310 ;
311 [label="gini = 0.0\nsamples = 142\nvalue = [142, 0]"] ;
310 -> 311 ;
312 [label="citric acid <= 0.39\ngini = 0.1975\nsamples = 9\nvalue = [8, 1]"] ;
310 -> 312 ;
313 [label="gini = 0.0\nsamples = 8\nvalue = [8, 0]"] ;
312 -> 313 ;
314 [label="gini = 0.0\nsamples = 1\nvalue = [0, 1]"] ;
312 -> 314 ;
315 [label="residual sugar <= 1.15\ngini = 0.1687\nsamples = 43\nvalue = [39, 4]"] ;
309 -> 315 ;
316 [label="gini = 0.0\nsamples = 2\nvalue = [0, 2]"] ;
315 -> 316 ;
317 [label="sulphates <= 0.565\ngini = 0.0928\nsamples = 41\nvalue = [39, 2]"] ;
315 -> 317 ;
318 [label="gini = 0.0\nsamples = 37\nvalue = [37, 0]"] ;
317 -> 318 ;
319 [label="chlorides <= 0.0325\ngini = 0.5\nsamples = 4\nvalue = [2, 2]"] ;
317 -> 319 ;
320 [label="gini = 0.0\nsamples = 2\nvalue = [0, 2]"] ;
319 -> 320 ;
321 [label="gini = 0.0\nsamples = 2\nvalue = [2, 0]"] ;
319 -> 321 ;
322 [label="citric acid <= 0.34\ngini = 0.5\nsamples = 2\nvalue = [1, 1]"] ;
304 -> 322 ;
323 [label="gini = 0.0\nsamples = 1\nvalue = [0, 1]"] ;
322 -> 323 ;
324 [label="gini = 0.0\nsamples = 1\nvalue = [1, 0]"] ;
322 -> 324 ;
325 [label="alcohol <= 12.25\ngini = 0.2268\nsamples = 322\nvalue = [280, 42]"] ;
299 -> 325 ;
326 [label="free sulfur dioxide <= 31.5\ngini = 0.138\nsamples = 161\nvalue = [149, 12]"] ;
325 -> 326 ;
327 [label="pH <= 3.245\ngini = 0.2732\nsamples = 49\nvalue = [41, 8]"] ;
326 -> 327 ;
328 [label="chlorides <= 0.0595\ngini = 0.0666\nsamples = 29\nvalue = [28, 1]"] ;
327 -> 328 ;
329 [label="gini = 0.0\nsamples = 25\nvalue = [25, 0]"] ;
328 -> 329 ;
330 [label="total sulfur dioxide <= 129.0\ngini = 0.375\nsamples = 4\nvalue = [3, 1]"] ;
328 -> 330 ;
331 [label="gini = 0.0\nsamples = 3\nvalue = [3, 0]"] ;
330 -> 331 ;
332 [label="gini = 0.0\nsamples = 1\nvalue = [0, 1]"] ;
330 -> 332 ;
333 [label="citric acid <= 0.35\ngini = 0.455\nsamples = 20\nvalue = [13, 7]"] ;
327 -> 333 ;
334 [label="volatile acidity <= 0.425\ngini = 0.1528\nsamples = 12\nvalue = [11, 1]"] ;
333 -> 334 ;
335 [label="gini = 0.0\nsamples = 9\nvalue = [9, 0]"] ;
334 -> 335 ;
336 [label="total sulfur dioxide <= 63.0\ngini = 0.4444\nsamples = 3\nvalue = [2, 1]"] ;
334 -> 336 ;
337 [label="gini = 0.0\nsamples = 2\nvalue = [2, 0]"] ;
336 -> 337 ;
338 [label="gini = 0.0\nsamples = 1\nvalue = [0, 1]"] ;
336 -> 338 ;
339 [label="fixed acidity <= 6.95\ngini = 0.375\nsamples = 8\nvalue = [2, 6]"] ;
333 -> 339 ;
340 [label="gini = 0.0\nsamples = 2\nvalue = [2, 0]"] ;
339 -> 340 ;
341 [label="gini = 0.0\nsamples = 6\nvalue = [0, 6]"] ;
339 -> 341 ;
342 [label="chlorides <= 0.0785\ngini = 0.0689\nsamples = 112\nvalue = [108, 4]"] ;
326 -> 342 ;
343 [label="free sulfur dioxide <= 50.5\ngini = 0.0531\nsamples = 110\nvalue = [107, 3]"] ;
342 -> 343 ;
344 [label="free sulfur dioxide <= 35.5\ngini = 0.0364\nsamples = 108\nvalue = [106, 2]"] ;
343 -> 344 ;
345 [label="pH <= 3.04\ngini = 0.1244\nsamples = 30\nvalue = [28, 2]"] ;
344 -> 345 ;
346 [label="volatile acidity <= 0.305\ngini = 0.5\nsamples = 2\nvalue = [1, 1]"] ;
345 -> 346 ;
347 [label="gini = 0.0\nsamples = 1\nvalue = [0, 1]"] ;
346 -> 347 ;
348 [label="gini = 0.0\nsamples = 1\nvalue = [1, 0]"] ;
346 -> 348 ;
349 [label="chlorides <= 0.047\ngini = 0.0689\nsamples = 28\nvalue = [27, 1]"] ;
345 -> 349 ;
350 [label="gini = 0.0\nsamples = 24\nvalue = [24, 0]"] ;
349 -> 350 ;
351 [label="pH <= 3.305\ngini = 0.375\nsamples = 4\nvalue = [3, 1]"] ;
349 -> 351 ;
352 [label="gini = 0.0\nsamples = 1\nvalue = [0, 1]"] ;
351 -> 352 ;
353 [label="gini = 0.0\nsamples = 3\nvalue = [3, 0]"] ;
351 -> 353 ;
354 [label="gini = 0.0\nsamples = 78\nvalue = [78, 0]"] ;
344 -> 354 ;
355 [label="pH <= 3.275\ngini = 0.5\nsamples = 2\nvalue = [1, 1]"] ;
343 -> 355 ;
356 [label="gini = 0.0\nsamples = 1\nvalue = [0, 1]"] ;
355 -> 356 ;
357 [label="gini = 0.0\nsamples = 1\nvalue = [1, 0]"] ;
355 -> 357 ;
358 [label="citric acid <= 0.435\ngini = 0.5\nsamples = 2\nvalue = [1, 1]"] ;
342 -> 358 ;
359 [label="gini = 0.0\nsamples = 1\nvalue = [1, 0]"] ;
358 -> 359 ;
360 [label="gini = 0.0\nsamples = 1\nvalue = [0, 1]"] ;
358 -> 360 ;
361 [label="density <= 0.9903\ngini = 0.3032\nsamples = 161\nvalue = [131, 30]"] ;
325 -> 361 ;
362 [label="pH <= 3.14\ngini = 0.375\nsamples = 4\nvalue = [1, 3]"] ;
361 -> 362 ;
363 [label="gini = 0.0\nsamples = 1\nvalue = [1, 0]"] ;
362 -> 363 ;
364 [label="gini = 0.0\nsamples = 3\nvalue = [0, 3]"] ;
362 -> 364 ;
365 [label="pH <= 3.235\ngini = 0.2848\nsamples = 157\nvalue = [130, 27]"] ;
361 -> 365 ;
366 [label="sulphates <= 0.385\ngini = 0.1956\nsamples = 91\nvalue = [81, 10]"] ;
365 -> 366 ;
367 [label="volatile acidity <= 0.23\ngini = 0.3878\nsamples = 19\nvalue = [14, 5]"] ;
366 -> 367 ;
368 [label="gini = 0.0\nsamples = 2\nvalue = [0, 2]"] ;
367 -> 368 ;
369 [label="total sulfur dioxide <= 165.0\ngini = 0.2907\nsamples = 17\nvalue = [14, 3]"] ;
367 -> 369 ;
370 [label="chlorides <= 0.0265\ngini = 0.1327\nsamples = 14\nvalue = [13, 1]"] ;
369 -> 370 ;
371 [label="density <= 0.9914\ngini = 0.5\nsamples = 2\nvalue = [1, 1]"] ;
370 -> 371 ;
372 [label="gini = 0.0\nsamples = 1\nvalue = [0, 1]"] ;
371 -> 372 ;
373 [label="gini = 0.0\nsamples = 1\nvalue = [1, 0]"] ;
371 -> 373 ;
374 [label="gini = 0.0\nsamples = 12\nvalue = [12, 0]"] ;
370 -> 374 ;
375 [label="free sulfur dioxide <= 43.5\ngini = 0.4444\nsamples = 3\nvalue = [1, 2]"] ;
369 -> 375 ;
376 [label="gini = 0.0\nsamples = 2\nvalue = [0, 2]"] ;
375 -> 376 ;
377 [label="gini = 0.0\nsamples = 1\nvalue = [1, 0]"] ;
375 -> 377 ;
378 [label="total sulfur dioxide <= 117.0\ngini = 0.1292\nsamples = 72\nvalue = [67, 5]"] ;
366 -> 378 ;
379 [label="total sulfur dioxide <= 115.5\ngini = 0.2098\nsamples = 42\nvalue = [37, 5]"] ;
378 -> 379 ;
380 [label="density <= 0.9915\ngini = 0.1761\nsamples = 41\nvalue = [37, 4]"] ;
379 -> 380 ;
381 [label="gini = 0.0\nsamples = 24\nvalue = [24, 0]"] ;
380 -> 381 ;
382 [label="citric acid <= 0.4\ngini = 0.3599\nsamples = 17\nvalue = [13, 4]"] ;
380 -> 382 ;
383 [label="density <= 0.9916\ngini = 0.2311\nsamples = 15\nvalue = [13, 2]"] ;
382 -> 383 ;
384 [label="gini = 0.0\nsamples = 1\nvalue = [0, 1]"] ;
383 -> 384 ;
385 [label="chlorides <= 0.0335\ngini = 0.1327\nsamples = 14\nvalue = [13, 1]"] ;
383 -> 385 ;
386 [label="gini = 0.0\nsamples = 11\nvalue = [11, 0]"] ;
385 -> 386 ;
387 [label="chlorides <= 0.0355\ngini = 0.4444\nsamples = 3\nvalue = [2, 1]"] ;
385 -> 387 ;
388 [label="gini = 0.0\nsamples = 1\nvalue = [0, 1]"] ;
387 -> 388 ;
389 [label="gini = 0.0\nsamples = 2\nvalue = [2, 0]"] ;
387 -> 389 ;
390 [label="gini = 0.0\nsamples = 2\nvalue = [0, 2]"] ;
382 -> 390 ;
391 [label="gini = 0.0\nsamples = 1\nvalue = [0, 1]"] ;
379 -> 391 ;
392 [label="gini = 0.0\nsamples = 30\nvalue = [30, 0]"] ;
378 -> 392 ;
393 [label="residual sugar <= 1.35\ngini = 0.3825\nsamples = 66\nvalue = [49, 17]"] ;
365 -> 393 ;
394 [label="gini = 0.0\nsamples = 2\nvalue = [0, 2]"] ;
393 -> 394 ;
395 [label="sulphates <= 0.495\ngini = 0.3589\nsamples = 64\nvalue = [49, 15]"] ;
393 -> 395 ;
396 [label="density <= 0.9906\ngini = 0.1588\nsamples = 23\nvalue = [21, 2]"] ;
395 -> 396 ;
397 [label="gini = 0.0\nsamples = 2\nvalue = [0, 2]"] ;
396 -> 397 ;
398 [label="gini = 0.0\nsamples = 21\nvalue = [21, 0]"] ;
396 -> 398 ;
399 [label="residual sugar <= 2.65\ngini = 0.4331\nsamples = 41\nvalue = [28, 13]"] ;
395 -> 399 ;
400 [label="total sulfur dioxide <= 46.5\ngini = 0.1723\nsamples = 21\nvalue = [19, 2]"] ;
399 -> 400 ;
401 [label="gini = 0.0\nsamples = 1\nvalue = [0, 1]"] ;
400 -> 401 ;
402 [label="residual sugar <= 1.45\ngini = 0.095\nsamples = 20\nvalue = [19, 1]"] ;
400 -> 402 ;
403 [label="gini = 0.0\nsamples = 1\nvalue = [0, 1]"] ;
402 -> 403 ;
404 [label="gini = 0.0\nsamples = 19\nvalue = [19, 0]"] ;
402 -> 404 ;
405 [label="sulphates <= 0.61\ngini = 0.495\nsamples = 20\nvalue = [9, 11]"] ;
399 -> 405 ;
406 [label="fixed acidity <= 6.0\ngini = 0.1975\nsamples = 9\nvalue = [1, 8]"] ;
405 -> 406 ;
407 [label="gini = 0.0\nsamples = 1\nvalue = [1, 0]"] ;
406 -> 407 ;
408 [label="gini = 0.0\nsamples = 8\nvalue = [0, 8]"] ;
406 -> 408 ;
409 [label="density <= 0.9922\ngini = 0.3967\nsamples = 11\nvalue = [8, 3]"] ;
405 -> 409 ;
410 [label="residual sugar <= 3.35\ngini = 0.1975\nsamples = 9\nvalue = [8, 1]"] ;
409 -> 410 ;
411 [label="gini = 0.0\nsamples = 1\nvalue = [0, 1]"] ;
410 -> 411 ;
412 [label="gini = 0.0\nsamples = 8\nvalue = [8, 0]"] ;
410 -> 412 ;
413 [label="gini = 0.0\nsamples = 2\nvalue = [0, 2]"] ;
409 -> 413 ;
414 [label="residual sugar <= 4.65\ngini = 0.4444\nsamples = 42\nvalue = [28, 14]"] ;
192 -> 414 ;
415 [label="free sulfur dioxide <= 94.5\ngini = 0.3282\nsamples = 29\nvalue = [23, 6]"] ;
414 -> 415 ;
416 [label="fixed acidity <= 6.75\ngini = 0.2524\nsamples = 27\nvalue = [23, 4]"] ;
415 -> 416 ;
417 [label="free sulfur dioxide <= 54.5\ngini = 0.0907\nsamples = 21\nvalue = [20, 1]"] ;
416 -> 417 ;
418 [label="density <= 0.9892\ngini = 0.5\nsamples = 2\nvalue = [1, 1]"] ;
417 -> 418 ;
419 [label="gini = 0.0\nsamples = 1\nvalue = [1, 0]"] ;
418 -> 419 ;
420 [label="gini = 0.0\nsamples = 1\nvalue = [0, 1]"] ;
418 -> 420 ;
421 [label="gini = 0.0\nsamples = 19\nvalue = [19, 0]"] ;
417 -> 421 ;
422 [label="fixed acidity <= 7.05\ngini = 0.5\nsamples = 6\nvalue = [3, 3]"] ;
416 -> 422 ;
423 [label="gini = 0.0\nsamples = 2\nvalue = [0, 2]"] ;
422 -> 423 ;
424 [label="total sulfur dioxide <= 179.0\ngini = 0.375\nsamples = 4\nvalue = [3, 1]"] ;
422 -> 424 ;
425 [label="gini = 0.0\nsamples = 3\nvalue = [3, 0]"] ;
424 -> 425 ;
426 [label="gini = 0.0\nsamples = 1\nvalue = [0, 1]"] ;
424 -> 426 ;
427 [label="gini = 0.0\nsamples = 2\nvalue = [0, 2]"] ;
415 -> 427 ;
428 [label="pH <= 3.18\ngini = 0.4734\nsamples = 13\nvalue = [5, 8]"] ;
414 -> 428 ;
429 [label="residual sugar <= 4.75\ngini = 0.4082\nsamples = 7\nvalue = [5, 2]"] ;
428 -> 429 ;
430 [label="gini = 0.0\nsamples = 2\nvalue = [0, 2]"] ;
429 -> 430 ;
431 [label="gini = 0.0\nsamples = 5\nvalue = [5, 0]"] ;
429 -> 431 ;
432 [label="gini = 0.0\nsamples = 6\nvalue = [0, 6]"] ;
428 -> 432 ;
}